<?xml version="1.0"?>
<opencv_storage>
<backless_stool type_id="opencv-haar-classifier">
  <size>
    24 24</size>
  <stages>
    <_>
      <trees>
        <_>
          <_>
            <feature>
              <rects>
                <_>
                  0 1 24 5 -1.</_>
                <_>
                  6 1 12 5 2.</_></rects>
              <tilted>0</tilted></feature>
            <threshold>-0.0397395193576813</threshold>
            <left_val>0.7192983031272888</left_val>
            <right_val>-0.9534887075424194</right_val></_></_>
        <_>
          <_>
            <feature>
              <rects>
                <_>
                  5 0 15 8 -1.</_>
                <_>
                  5 2 15 4 2.</_></rects>
              <tilted>0</tilted></feature>
            <threshold>-0.0531278103590012</threshold>
            <left_val>0.8463115096092224</left_val>
            <right_val>-0.7269961833953857</right_val></_></_></trees>
      <stage_threshold>-0.1071771979331970</stage_threshold>
      <parent>-1</parent>
      <next>-1</next></_>
    <_>
      <trees>
        <_>
          <_>
            <feature>
              <rects>
                <_>
                  2 12 7 12 -1.</_>
                <_>
                  2 18 7 6 2.</_></rects>
              <tilted>0</tilted></feature>
            <threshold>0.0133920600637794</threshold>
            <left_val>-0.8974360227584839</left_val>
            <right_val>0.5737708210945129</right_val></_></_>
        <_>
          <_>
            <feature>
              <rects>
                <_>
                  1 20 23 4 -1.</_>
                <_>
                  1 22 23 2 2.</_></rects>
              <tilted>0</tilted></feature>
            <threshold>4.9831178039312363e-003</threshold>
            <left_val>-0.9548441171646118</left_val>
            <right_val>0.3902384042739868</right_val></_></_></trees>
      <stage_threshold>-0.5071976184844971</stage_threshold>
      <parent>0</parent>
      <next>-1</next></_>
    <_>
      <trees>
        <_>
          <_>
            <feature>
              <rects>
                <_>
                  9 3 6 9 -1.</_>
                <_>
                  11 6 2 3 9.</_></rects>
              <tilted>0</tilted></feature>
            <threshold>0.0372356586158276</threshold>
            <left_val>-0.6481481790542603</left_val>
            <right_val>0.7608699202537537</right_val></_></_>
        <_>
          <_>
            <feature>
              <rects>
                <_>
                  7 13 14 10 -1.</_>
                <_>
                  7 18 14 5 2.</_></rects>
              <tilted>0</tilted></feature>
            <threshold>0.0301237292587757</threshold>
            <left_val>-0.8192288279533386</left_val>
            <right_val>0.5084651708602905</right_val></_></_>
        <_>
          <_>
            <feature>
              <rects>
                <_>
                  7 7 7 2 -1.</_>
                <_>
                  7 8 7 1 2.</_></rects>
              <tilted>0</tilted></feature>
            <threshold>-3.0422038980759680e-004</threshold>
            <left_val>-0.9449316263198853</left_val>
            <right_val>0.4629398882389069</right_val></_></_></trees>
      <stage_threshold>-1.0044369697570801</stage_threshold>
      <parent>1</parent>
      <next>-1</next></_>
    <_>
      <trees>
        <_>
          <_>
            <feature>
              <rects>
                <_>
                  3 12 18 12 -1.</_>
                <_>
                  3 18 18 6 2.</_></rects>
              <tilted>0</tilted></feature>
            <threshold>0.0779372230172157</threshold>
            <left_val>-0.7446808815002441</left_val>
            <right_val>0.6603776216506958</right_val></_></_>
        <_>
          <_>
            <feature>
              <rects>
                <_>
                  16 4 8 1 -1.</_>
                <_>
                  16 4 4 1 2.</_></rects>
              <tilted>0</tilted></feature>
            <threshold>-5.1782950758934021e-003</threshold>
            <left_val>0.4554198980331421</left_val>
            <right_val>-0.6620771884918213</right_val></_></_>
        <_>
          <_>
            <feature>
              <rects>
                <_>
                  0 0 22 12 -1.</_>
                <_>
                  11 0 11 12 2.</_></rects>
              <tilted>0</tilted></feature>
            <threshold>0.0287767406553030</threshold>
            <left_val>0.5085014104843140</left_val>
            <right_val>-0.9999982714653015</right_val></_></_>
        <_>
          <_>
            <feature>
              <rects>
                <_>
                  17 0 2 12 -1.</_>
                <_>
                  17 0 2 6 2.</_></rects>
              <tilted>1</tilted></feature>
            <threshold>-0.0668981373310089</threshold>
            <left_val>0.8492817878723145</left_val>
            <right_val>-0.1955482959747315</right_val></_></_>
        <_>
          <_>
            <feature>
              <rects>
                <_>
                  7 0 12 2 -1.</_>
                <_>
                  7 0 6 2 2.</_></rects>
              <tilted>1</tilted></feature>
            <threshold>-7.0841149426996708e-003</threshold>
            <left_val>0.6581171751022339</left_val>
            <right_val>-0.7529721260070801</right_val></_></_></trees>
      <stage_threshold>-0.4417186081409454</stage_threshold>
      <parent>2</parent>
      <next>-1</next></_>
    <_>
      <trees>
        <_>
          <_>
            <feature>
              <rects>
                <_>
                  10 3 9 3 -1.</_>
                <_>
                  13 6 3 3 3.</_></rects>
              <tilted>1</tilted></feature>
            <threshold>0.0386693887412548</threshold>
            <left_val>-0.4960631132125855</left_val>
            <right_val>0.8630141019821167</right_val></_></_>
        <_>
          <_>
            <feature>
              <rects>
                <_>
                  5 3 15 4 -1.</_>
                <_>
                  5 5 15 2 2.</_></rects>
              <tilted>0</tilted></feature>
            <threshold>0.0142873600125313</threshold>
            <left_val>-0.6801661849021912</left_val>
            <right_val>0.6148207783699036</right_val></_></_>
        <_>
          <_>
            <feature>
              <rects>
                <_>
                  0 2 16 5 -1.</_>
                <_>
                  4 2 8 5 2.</_></rects>
              <tilted>0</tilted></feature>
            <threshold>-0.0175723508000374</threshold>
            <left_val>0.5339154005050659</left_val>
            <right_val>-0.8775107264518738</right_val></_></_>
        <_>
          <_>
            <feature>
              <rects>
                <_>
                  9 2 6 19 -1.</_>
                <_>
                  11 2 2 19 3.</_></rects>
              <tilted>0</tilted></feature>
            <threshold>0.0111840097233653</threshold>
            <left_val>-0.6239606142044067</left_val>
            <right_val>0.7567353248596191</right_val></_></_></trees>
      <stage_threshold>-2.0176169928163290e-003</stage_threshold>
      <parent>3</parent>
      <next>-1</next></_>
    <_>
      <trees>
        <_>
          <_>
            <feature>
              <rects>
                <_>
                  0 7 24 4 -1.</_>
                <_>
                  12 7 12 4 2.</_></rects>
              <tilted>0</tilted></feature>
            <threshold>-0.0206772498786449</threshold>
            <left_val>-0.9701492786407471</left_val>
            <right_val>0.4887219965457916</right_val></_></_>
        <_>
          <_>
            <feature>
              <rects>
                <_>
                  4 0 16 2 -1.</_>
                <_>
                  4 1 16 1 2.</_></rects>
              <tilted>0</tilted></feature>
            <threshold>-0.0211514104157686</threshold>
            <left_val>0.9800416231155396</left_val>
            <right_val>-0.5131117105484009</right_val></_></_></trees>
      <stage_threshold>-0.0243896804749966</stage_threshold>
      <parent>4</parent>
      <next>-1</next></_>
    <_>
      <trees>
        <_>
          <_>
            <feature>
              <rects>
                <_>
                  0 3 6 14 -1.</_>
                <_>
                  3 3 3 14 2.</_></rects>
              <tilted>0</tilted></feature>
            <threshold>-0.0364018604159355</threshold>
            <left_val>0.8000000715255737</left_val>
            <right_val>-0.6545457243919373</right_val></_></_>
        <_>
          <_>
            <feature>
              <rects>
                <_>
                  20 0 4 2 -1.</_>
                <_>
                  22 0 2 1 2.</_>
                <_>
                  20 1 2 1 2.</_></rects>
              <tilted>0</tilted></feature>
            <threshold>6.4766027207951993e-005</threshold>
            <left_val>0.3156177997589111</left_val>
            <right_val>-0.9415168762207031</right_val></_></_>
        <_>
          <_>
            <feature>
              <rects>
                <_>
                  0 11 1 12 -1.</_>
                <_>
                  0 17 1 6 2.</_></rects>
              <tilted>0</tilted></feature>
            <threshold>1.5091469686012715e-004</threshold>
            <left_val>0.4079472124576569</left_val>
            <right_val>-0.9225099086761475</right_val></_></_></trees>
      <stage_threshold>0.0690192282199860</stage_threshold>
      <parent>5</parent>
      <next>-1</next></_>
    <_>
      <trees>
        <_>
          <_>
            <feature>
              <rects>
                <_>
                  0 8 11 16 -1.</_>
                <_>
                  0 16 11 8 2.</_></rects>
              <tilted>0</tilted></feature>
            <threshold>0.0101257404312491</threshold>
            <left_val>-0.8571429252624512</left_val>
            <right_val>0.4615387022495270</right_val></_></_>
        <_>
          <_>
            <feature>
              <rects>
                <_>
                  15 10 9 12 -1.</_>
                <_>
                  15 13 9 6 2.</_></rects>
              <tilted>0</tilted></feature>
            <threshold>-4.1803130879998207e-003</threshold>
            <left_val>0.2836835980415344</left_val>
            <right_val>-0.5653936862945557</right_val></_></_>
        <_>
          <_>
            <feature>
              <rects>
                <_>
                  0 3 1 3 -1.</_>
                <_>
                  0 4 1 1 3.</_></rects>
              <tilted>0</tilted></feature>
            <threshold>8.9554123405832797e-005</threshold>
            <left_val>0.4197803139686585</left_val>
            <right_val>-1.0000009536743164</right_val></_></_>
        <_>
          <_>
            <feature>
              <rects>
                <_>
                  22 1 2 4 -1.</_>
                <_>
                  22 2 2 2 2.</_></rects>
              <tilted>0</tilted></feature>
            <threshold>-1.2630630226340145e-004</threshold>
            <left_val>-0.7179523110389710</left_val>
            <right_val>0.1920651048421860</right_val></_></_></trees>
      <stage_threshold>-0.8716313242912293</stage_threshold>
      <parent>6</parent>
      <next>-1</next></_>
    <_>
      <trees>
        <_>
          <_>
            <feature>
              <rects>
                <_>
                  0 3 1 3 -1.</_>
                <_>
                  0 4 1 1 3.</_></rects>
              <tilted>0</tilted></feature>
            <threshold>-1.0623309935908765e-004</threshold>
            <left_val>-0.8666666746139526</left_val>
            <right_val>0.5200002193450928</right_val></_></_>
        <_>
          <_>
            <feature>
              <rects>
                <_>
                  16 5 6 9 -1.</_>
                <_>
                  18 5 2 9 3.</_></rects>
              <tilted>0</tilted></feature>
            <threshold>-0.0319604910910130</threshold>
            <left_val>0.7408257722854614</left_val>
            <right_val>-0.3691309988498688</right_val></_></_>
        <_>
          <_>
            <feature>
              <rects>
                <_>
                  2 11 20 1 -1.</_>
                <_>
                  12 11 10 1 2.</_></rects>
              <tilted>0</tilted></feature>
            <threshold>4.0972880087792873e-003</threshold>
            <left_val>0.4528208971023560</left_val>
            <right_val>-0.9418817162513733</right_val></_></_></trees>
      <stage_threshold>-0.7829769253730774</stage_threshold>
      <parent>7</parent>
      <next>-1</next></_>
    <_>
      <trees>
        <_>
          <_>
            <feature>
              <rects>
                <_>
                  8 0 8 4 -1.</_>
                <_>
                  8 2 8 2 2.</_></rects>
              <tilted>0</tilted></feature>
            <threshold>-0.0105510400608182</threshold>
            <left_val>0.5769231915473938</left_val>
            <right_val>-0.6250002980232239</right_val></_></_>
        <_>
          <_>
            <feature>
              <rects>
                <_>
                  0 10 24 5 -1.</_>
                <_>
                  0 10 12 5 2.</_></rects>
              <tilted>0</tilted></feature>
            <threshold>0.0239332895725966</threshold>
            <left_val>0.4182483851909638</left_val>
            <right_val>-0.9770908951759338</right_val></_></_>
        <_>
          <_>
            <feature>
              <rects>
                <_>
                  3 12 4 12 -1.</_>
                <_>
                  3 12 2 6 2.</_>
                <_>
                  5 18 2 6 2.</_></rects>
              <tilted>0</tilted></feature>
            <threshold>-6.5914168953895569e-003</threshold>
            <left_val>0.8027929067611694</left_val>
            <right_val>-0.4880040884017944</right_val></_></_>
        <_>
          <_>
            <feature>
              <rects>
                <_>
                  23 3 1 3 -1.</_>
                <_>
                  23 4 1 1 3.</_></rects>
              <tilted>0</tilted></feature>
            <threshold>1.0756860137917101e-004</threshold>
            <left_val>0.3319399058818817</left_val>
            <right_val>-0.9648504853248596</right_val></_></_></trees>
      <stage_threshold>-0.5562319755554199</stage_threshold>
      <parent>8</parent>
      <next>-1</next></_>
    <_>
      <trees>
        <_>
          <_>
            <feature>
              <rects>
                <_>
                  0 3 2 3 -1.</_>
                <_>
                  0 4 2 1 3.</_></rects>
              <tilted>0</tilted></feature>
            <threshold>-1.2125170178478584e-004</threshold>
            <left_val>-0.8108109235763550</left_val>
            <right_val>0.4761906862258911</right_val></_></_>
        <_>
          <_>
            <feature>
              <rects>
                <_>
                  22 2 2 6 -1.</_>
                <_>
                  23 2 1 3 2.</_>
                <_>
                  22 5 1 3 2.</_></rects>
              <tilted>0</tilted></feature>
            <threshold>-2.6081630494445562e-004</threshold>
            <left_val>-0.6938291788101196</left_val>
            <right_val>0.1398365050554276</right_val></_></_>
        <_>
          <_>
            <feature>
              <rects>
                <_>
                  0 2 2 6 -1.</_>
                <_>
                  0 4 2 2 3.</_></rects>
              <tilted>0</tilted></feature>
            <threshold>5.4505438311025500e-004</threshold>
            <left_val>0.4776296913623810</left_val>
            <right_val>-0.8856533765792847</right_val></_></_>
        <_>
          <_>
            <feature>
              <rects>
                <_>
                  23 1 1 20 -1.</_>
                <_>
                  23 6 1 10 2.</_></rects>
              <tilted>0</tilted></feature>
            <threshold>7.8087239526212215e-003</threshold>
            <left_val>0.1218660026788712</left_val>
            <right_val>-0.9483538866043091</right_val></_></_></trees>
      <stage_threshold>-0.9051445126533508</stage_threshold>
      <parent>9</parent>
      <next>-1</next></_>
    <_>
      <trees>
        <_>
          <_>
            <feature>
              <rects>
                <_>
                  0 3 1 3 -1.</_>
                <_>
                  0 4 1 1 3.</_></rects>
              <tilted>0</tilted></feature>
            <threshold>-6.1423881561495364e-005</threshold>
            <left_val>-0.8055555820465088</left_val>
            <right_val>0.4531252086162567</right_val></_></_>
        <_>
          <_>
            <feature>
              <rects>
                <_>
                  23 5 1 12 -1.</_>
                <_>
                  23 8 1 6 2.</_></rects>
              <tilted>0</tilted></feature>
            <threshold>1.9589499570429325e-003</threshold>
            <left_val>0.1941449046134949</left_val>
            <right_val>-0.9999995231628418</right_val></_></_>
        <_>
          <_>
            <feature>
              <rects>
                <_>
                  9 0 2 1 -1.</_>
                <_>
                  9 0 1 1 2.</_></rects>
              <tilted>1</tilted></feature>
            <threshold>5.8449467178434134e-004</threshold>
            <left_val>-0.6846153736114502</left_val>
            <right_val>0.4672062098979950</right_val></_></_>
        <_>
          <_>
            <feature>
              <rects>
                <_>
                  0 8 24 14 -1.</_>
                <_>
                  12 8 12 7 2.</_>
                <_>
                  0 15 12 7 2.</_></rects>
              <tilted>0</tilted></feature>
            <threshold>-0.0309738796204329</threshold>
            <left_val>-0.8576679825782776</left_val>
            <right_val>0.3903138041496277</right_val></_></_></trees>
      <stage_threshold>-0.9057124853134155</stage_threshold>
      <parent>10</parent>
      <next>-1</next></_>
    <_>
      <trees>
        <_>
          <_>
            <feature>
              <rects>
                <_>
                  1 2 20 20 -1.</_>
                <_>
                  1 2 10 10 2.</_>
                <_>
                  11 12 10 10 2.</_></rects>
              <tilted>0</tilted></feature>
            <threshold>-0.0108273997902870</threshold>
            <left_val>-0.9622641801834106</left_val>
            <right_val>0.3469389975070953</right_val></_></_>
        <_>
          <_>
            <feature>
              <rects>
                <_>
                  23 0 1 9 -1.</_>
                <_>
                  23 3 1 3 3.</_></rects>
              <tilted>0</tilted></feature>
            <threshold>-1.2067460193065926e-004</threshold>
            <left_val>-0.8528633713722229</left_val>
            <right_val>0.3308951854705811</right_val></_></_>
        <_>
          <_>
            <feature>
              <rects>
                <_>
                  2 8 6 3 -1.</_>
                <_>
                  4 8 2 3 3.</_></rects>
              <tilted>0</tilted></feature>
            <threshold>-0.0147369699552655</threshold>
            <left_val>0.8104264140129089</left_val>
            <right_val>-0.4081099033355713</right_val></_></_>
        <_>
          <_>
            <feature>
              <rects>
                <_>
                  10 0 9 1 -1.</_>
                <_>
                  13 0 3 1 3.</_></rects>
              <tilted>0</tilted></feature>
            <threshold>4.1425650124438107e-004</threshold>
            <left_val>0.2163763046264648</left_val>
            <right_val>-0.7226182818412781</right_val></_></_></trees>
      <stage_threshold>-0.6976581215858460</stage_threshold>
      <parent>11</parent>
      <next>-1</next></_>
    <_>
      <trees>
        <_>
          <_>
            <feature>
              <rects>
                <_>
                  1 0 10 4 -1.</_>
                <_>
                  1 2 10 2 2.</_></rects>
              <tilted>0</tilted></feature>
            <threshold>-0.0115176895633340</threshold>
            <left_val>0.5229359269142151</left_val>
            <right_val>-0.6263738870620728</right_val></_></_>
        <_>
          <_>
            <feature>
              <rects>
                <_>
                  0 0 24 24 -1.</_>
                <_>
                  12 0 12 12 2.</_>
                <_>
                  0 12 12 12 2.</_></rects>
              <tilted>0</tilted></feature>
            <threshold>-0.0611945390701294</threshold>
            <left_val>-0.8847184777259827</left_val>
            <right_val>0.3812389969825745</right_val></_></_>
        <_>
          <_>
            <feature>
              <rects>
                <_>
                  2 7 7 12 -1.</_>
                <_>
                  2 11 7 4 3.</_></rects>
              <tilted>0</tilted></feature>
            <threshold>-5.9631778858602047e-003</threshold>
            <left_val>0.3928265869617462</left_val>
            <right_val>-0.7859526276588440</right_val></_></_></trees>
      <stage_threshold>0.0310439206659794</stage_threshold>
      <parent>12</parent>
      <next>-1</next></_>
    <_>
      <trees>
        <_>
          <_>
            <feature>
              <rects>
                <_>
                  9 0 6 1 -1.</_>
                <_>
                  11 0 2 1 3.</_></rects>
              <tilted>0</tilted></feature>
            <threshold>4.5093629159964621e-004</threshold>
            <left_val>0.3611111938953400</left_val>
            <right_val>-0.9285718798637390</right_val></_></_>
        <_>
          <_>
            <feature>
              <rects>
                <_>
                  23 0 1 8 -1.</_>
                <_>
                  23 2 1 4 2.</_></rects>
              <tilted>0</tilted></feature>
            <threshold>-1.0347829665988684e-003</threshold>
            <left_val>-0.9142392873764038</left_val>
            <right_val>0.1227196976542473</right_val></_></_>
        <_>
          <_>
            <feature>
              <rects>
                <_>
                  3 2 16 8 -1.</_>
                <_>
                  3 6 16 4 2.</_></rects>
              <tilted>0</tilted></feature>
            <threshold>0.0356906391680241</threshold>
            <left_val>-0.7475386857986450</left_val>
            <right_val>0.4589936137199402</right_val></_></_></trees>
      <stage_threshold>-0.3468585908412933</stage_threshold>
      <parent>13</parent>
      <next>-1</next></_>
    <_>
      <trees>
        <_>
          <_>
            <feature>
              <rects>
                <_>
                  0 3 1 4 -1.</_>
                <_>
                  0 4 1 2 2.</_></rects>
              <tilted>0</tilted></feature>
            <threshold>-3.0378170777112246e-005</threshold>
            <left_val>-0.8461539149284363</left_val>
            <right_val>0.4074076116085053</right_val></_></_>
        <_>
          <_>
            <feature>
              <rects>
                <_>
                  14 5 6 6 -1.</_>
                <_>
                  16 5 2 6 3.</_></rects>
              <tilted>0</tilted></feature>
            <threshold>0.0280334800481796</threshold>
            <left_val>-0.3366034030914307</left_val>
            <right_val>0.7873615026473999</right_val></_></_>
        <_>
          <_>
            <feature>
              <rects>
                <_>
                  1 7 5 4 -1.</_>
                <_>
                  1 8 5 2 2.</_></rects>
              <tilted>0</tilted></feature>
            <threshold>1.2439950369298458e-003</threshold>
            <left_val>0.3421046137809753</left_val>
            <right_val>-0.9999991059303284</right_val></_></_>
        <_>
          <_>
            <feature>
              <rects>
                <_>
                  21 0 2 21 -1.</_>
                <_>
                  21 7 2 7 3.</_></rects>
              <tilted>0</tilted></feature>
            <threshold>-0.0229012705385685</threshold>
            <left_val>-0.6711586713790894</left_val>
            <right_val>0.0878137573599815</right_val></_></_></trees>
      <stage_threshold>-0.7528389096260071</stage_threshold>
      <parent>14</parent>
      <next>-1</next></_>
    <_>
      <trees>
        <_>
          <_>
            <feature>
              <rects>
                <_>
                  0 22 21 2 -1.</_>
                <_>
                  0 23 21 1 2.</_></rects>
              <tilted>0</tilted></feature>
            <threshold>4.1951439925469458e-004</threshold>
            <left_val>-0.7662339210510254</left_val>
            <right_val>0.4796749949455261</right_val></_></_>
        <_>
          <_>
            <feature>
              <rects>
                <_>
                  22 10 2 14 -1.</_>
                <_>
                  23 10 1 7 2.</_>
                <_>
                  22 17 1 7 2.</_></rects>
              <tilted>0</tilted></feature>
            <threshold>1.2045910261804238e-004</threshold>
            <left_val>0.1558558940887451</left_val>
            <right_val>-0.4598528146743774</right_val></_></_>
        <_>
          <_>
            <feature>
              <rects>
                <_>
                  1 1 1 10 -1.</_>
                <_>
                  1 6 1 5 2.</_></rects>
              <tilted>0</tilted></feature>
            <threshold>6.8978767376393080e-004</threshold>
            <left_val>0.4189130961894989</left_val>
            <right_val>-0.8768467903137207</right_val></_></_>
        <_>
          <_>
            <feature>
              <rects>
                <_>
                  0 0 24 3 -1.</_>
                <_>
                  0 0 12 3 2.</_></rects>
              <tilted>0</tilted></feature>
            <threshold>0.0284243300557137</threshold>
            <left_val>0.3624621927738190</left_val>
            <right_val>-0.9427158236503601</right_val></_></_></trees>
      <stage_threshold>-0.5039803981781006</stage_threshold>
      <parent>15</parent>
      <next>-1</next></_>
    <_>
      <trees>
        <_>
          <_>
            <feature>
              <rects>
                <_>
                  1 7 2 4 -1.</_>
                <_>
                  1 8 2 2 2.</_></rects>
              <tilted>0</tilted></feature>
            <threshold>-7.5075658969581127e-005</threshold>
            <left_val>-0.7681161165237427</left_val>
            <right_val>0.4045804142951965</right_val></_></_>
        <_>
          <_>
            <feature>
              <rects>
                <_>
                  11 17 8 2 -1.</_>
                <_>
                  13 17 4 2 2.</_></rects>
              <tilted>0</tilted></feature>
            <threshold>-1.6034709988161922e-003</threshold>
            <left_val>0.3553181886672974</left_val>
            <right_val>-0.4333913028240204</right_val></_></_>
        <_>
          <_>
            <feature>
              <rects>
                <_>
                  5 17 8 2 -1.</_>
                <_>
                  7 17 4 2 2.</_></rects>
              <tilted>0</tilted></feature>
            <threshold>-6.2464210204780102e-003</threshold>
            <left_val>0.8650658726692200</left_val>
            <right_val>-0.3416143953800201</right_val></_></_>
        <_>
          <_>
            <feature>
              <rects>
                <_>
                  13 1 2 12 -1.</_>
                <_>
                  10 4 2 6 2.</_></rects>
              <tilted>1</tilted></feature>
            <threshold>8.4396954625844955e-003</threshold>
            <left_val>-0.2594197988510132</left_val>
            <right_val>0.4685227870941162</right_val></_></_></trees>
      <stage_threshold>-0.6298450827598572</stage_threshold>
      <parent>16</parent>
      <next>-1</next></_></stages></backless_stool>
</opencv_storage>
